solver_type L2R_L1LOSS_SVC_DUAL
nr_class 2
label 1 -1
nr_feature 119
bias -1
w
-0.7299959100744999 
-0.4146684078993985 
-0.1498817757192796 
0.4498732907819658 
0.227428064093715 
0.428255363211349 
0.1506252608224941 
0.4265346628376392 
1.108634169032229 
0.7087286840968545 
-0.2958025614616417 
0 
0 
-0.3527617007384833 
-0.06797755579896148 
-0.011809171047787 
0.1348949443306537 
-0.3195912555636227 
-0.664365603434419 
-0.1319066366024799 
0.538814938970404 
-0.1950965996154537 
0.724012531045787 
-0.6699433062356093 
0.4977793781531545 
-1.091997734554861 
0.3296666807656692 
0 
-0.3034793581390574 
0 
0 
1.416447852091835 
-1.067176881262978 
0 
-1.29069299608156 
-0.1950965996154537 
-0.1319066366024799 
-0.1721639280824547 
1.172615421562853 
0.629583901264823 
-0.1920040476743452 
-0.3882889062597172 
0.3602894815598461 
-0.3298105718341553 
-1.195696621428535 
0.4986820255515596 
0.4553992367320916 
-0.1876037023334902 
-0.3641983204597778 
0.3365281363037411 
1.134482082725313 
0.3175621938107724 
0.6523112458428955 
0.3480078354935188 
0.6631117683203342 
-0.05839871302200095 
-0.1446654036351447 
-0.9820530621300789 
0.3564922808913025 
0 
0.6691455237194077 
-0.5715337965185512 
0.4591204030959943 
-0.308779460521805 
-0.4355816099089805 
-0.4296157986876068 
0.2561151943612003 
0.2207252463932055 
-1.352034394222224 
0 
0.2579492146422808 
-0.3032926981357491 
-0.3139520406868996 
-0.9846936615751929 
0.3674489227512368 
-0.7623372157320318 
0.1450924769092126 
-0.8555921095218366 
0.1251233541410102 
-0.3753105320704435 
0.4777081644029408 
0.01082638422803939 
0.0350980783207433 
1.770170270490401 
-0.4959795749249736 
-1.902609697821839 
0.4947179769265944 
-0.8680472547284239 
0 
-0.2089024133596619 
3.912902794454073 
0.01706055186149349 
0 
0 
0.4283129550277641 
0 
0 
0 
0.4381391941879542 
0 
0 
0 
0.7304982839607987 
0 
-1.56902507312989 
0 
-1.55853773160527 
0 
0 
0 
0 
0 
-0.1106908760353813 
0 
0 
0 
0 
4.142411027081227 
-1.798784250124287 
